<?xml version="1.0"?>
<opencv_storage>
<opencv_ml_svm>
  <format>3</format>
  <svmType>C_SVC</svmType>
  <kernel>
    <type>LINEAR</type></kernel>
  <C>1.</C>
  <term_criteria><iterations>300</iterations></term_criteria>
  <var_count>6</var_count>
  <class_count>9</class_count>
  <class_labels type_id="opencv-matrix">
    <rows>9</rows>
    <cols>1</cols>
    <dt>i</dt>
    <data>
      1 2 3 4 5 6 7 8 9</data></class_labels>
  <sv_total>36</sv_total>
  <support_vectors>
    <_>
      3.63966310e-03 1.74021013e-02 -1.00031015e-04 3.91672645e-03
      2.57599307e-03 -3.55057605e-02</_>
    <_>
      8.40894412e-03 -3.90982926e-02 1.98837870e-06 6.29502954e-03
      6.80078799e-03 -2.61315499e-02</_>
    <_>
      2.13686188e-04 1.18913027e-02 -1.25335495e-03 2.17560126e-04
      1.29179866e-03 5.26200933e-03</_>
    <_>
      -9.83545277e-03 -1.20960865e-02 -5.41600958e-03 -1.65601671e-02
      -1.84863899e-03 2.63230741e-01</_>
    <_>
      2.15175003e-03 1.36433654e-02 8.77473969e-04 2.29033362e-03
      1.15337665e-03 -2.78127454e-02</_>
    <_>
      -2.94284453e-03 1.12485895e-02 -3.28718009e-03 -3.44868121e-03
      -3.30316368e-04 4.07543778e-02</_>
    <_>
      -1.87433660e-02 -4.35235351e-02 -1.86406709e-02 -1.94685366e-02
      -6.11853600e-03 2.33146280e-01</_>
    <_>
      -4.42862938e-06 -8.41344800e-03 1.26707664e-05 -3.96617270e-06
      -1.89592913e-06 -9.94764850e-05</_>
    <_>
      2.06132140e-02 -5.64676076e-02 5.41617116e-03 1.28804212e-02
      1.43645220e-02 -3.55849192e-02</_>
    <_>
      -8.25787545e-04 1.53461834e-02 9.70339970e-05 -1.22269837e-03
      8.17466498e-05 7.26114353e-03</_>
    <_>
      -2.04105134e-04 -7.79667199e-02 2.23959269e-05 -2.41325659e-04
      -7.59534450e-05 1.24948507e-03</_>
    <_>
      -4.73671098e-04 1.70034096e-02 1.11694611e-03 -4.00911085e-04
      -8.35528888e-04 -8.03253427e-03</_>
    <_>
      -1.17581068e-02 1.23887956e-02 -5.07224118e-03 -1.33533897e-02
      -6.04145881e-03 1.44825578e-01</_>
    <_>
      -8.22766335e-04 -1.22578584e-01 -4.00333171e-04 -8.02074093e-04
      -3.41445964e-04 5.62471990e-03</_>
    <_>
      -3.34337301e-06 -7.26527022e-03 1.08078621e-05 -2.81103303e-06
      -1.42733268e-06 -1.00868820e-04</_>
    <_>
      -5.91348531e-03 2.57831160e-02 -1.07480388e-03 -3.95058421e-03
      -3.91558139e-03 1.05314394e-02</_>
    <_>
      1.00993284e-05 -2.58359686e-02 3.79362100e-05 7.65209188e-06
      4.69445058e-06 -5.19423338e-04</_>
    <_>
      -4.74326825e-03 2.99757682e-02 8.49243952e-04 -2.61308206e-03
      -4.42554150e-03 -1.66321788e-02</_>
    <_>
      -1.30479923e-02 2.81403400e-02 -3.90654616e-03 -1.15788775e-02
      -8.12545139e-03 9.56359953e-02</_>
    <_>
      -5.13893792e-06 -2.93958895e-02 2.29432862e-05 -1.82769543e-06
      -2.72506895e-06 -5.27133059e-04</_>
    <_>
      -5.47468858e-07 -6.11496205e-03 9.64450828e-06 -7.84210386e-08
      -2.81061091e-07 -1.08246539e-04</_>
    <_>
      1.95545872e-04 -4.68213148e-02 1.24272847e-04 1.76323476e-04
      1.19642478e-04 -2.69789668e-03</_>
    <_>
      5.63949998e-03 2.15556622e-02 2.44110031e-03 5.00728050e-03
      2.37407140e-03 -4.94792014e-02</_>
    <_>
      -9.26243738e-05 1.96005516e-02 -5.59453096e-04 -3.47416702e-04
      -2.95396567e-05 -6.69770222e-03</_>
    <_>
      2.45044794e-04 -5.99814765e-02 9.47564840e-05 2.40552632e-04
      1.59711679e-04 -3.82395019e-03</_>
    <_>
      2.77000140e-06 -6.84206281e-03 1.20623190e-05 3.11968302e-06
      1.86642944e-06 -1.56563197e-04</_>
    <_>
      6.86424226e-03 1.16863018e-02 4.24709683e-03 1.72438081e-02
      -1.67108525e-03 -2.83965260e-01</_>
    <_>
      -1.29018197e-04 4.41447608e-02 -1.18722863e-04 -1.16987831e-04
      -7.30132524e-05 1.75684411e-03</_>
    <_>
      -3.03329038e-03 -1.40757142e-02 -2.88547715e-03 -2.32945662e-03
      -1.52616017e-03 1.09816901e-02</_>
    <_>
      -2.72712176e-04 -8.19586739e-02 3.31075338e-04 -2.09691934e-04
      -1.26403465e-04 8.89888324e-04</_>
    <_>
      -6.54633390e-03 9.10831708e-03 -3.96403391e-03 -7.20048603e-03
      -2.88844039e-03 8.74640644e-02</_>
    <_>
      -9.52449627e-03 -4.87638824e-02 -1.75036117e-02 -1.42857749e-02
      -5.34009654e-04 1.96729839e-01</_>
    <_>
      -6.68045641e-06 -8.88380781e-03 1.24177586e-05 -6.17469095e-06
      -2.55514215e-06 -8.52618905e-05</_>
    <_>
      1.39776181e-04 -5.56676574e-02 9.48498346e-05 1.43910991e-04
      8.45045797e-05 -2.27233605e-03</_>
    <_>
      1.67163876e-06 -6.78102858e-03 1.20458844e-05 2.13355247e-06
      1.05170284e-06 -1.38748699e-04</_>
    <_>
      5.48341768e-06 -1.89394783e-02 5.41082300e-05 6.15487943e-06
      3.24850248e-06 -3.15560814e-04</_></support_vectors>
  <uncompressed_sv_total>30</uncompressed_sv_total>
  <uncompressed_support_vectors>
    <_>
      2.98195362e-01 1.72787354e+02 8.22798014e-01 3.92377526e-01
      8.90425742e-02 7.79098415e+00</_>
    <_>
      2.92523831e-01 1.62046494e+02 8.32339704e-01 3.85881007e-01
      8.56522173e-02 7.76971292e+00</_>
    <_>
      4.33861792e-01 1.58971329e+02 8.64089608e-01 5.23011088e-01
      1.88349560e-01 6.28850603e+00</_>
    <_>
      3.86805415e-01 2.19283661e+02 7.96007812e-01 4.78861481e-01
      1.49709687e-01 7.38566160e+00</_>
    <_>
      1.79202184e-01 3.00350250e+02 6.23316348e-01 2.52971828e-01
      3.22744735e-02 1.18752375e+01</_>
    <_>
      1.52462706e-01 3.01678192e+02 6.09914064e-01 2.36097634e-01
      2.35662833e-02 1.19439077e+01</_>
    <_>
      3.08851063e-01 1.88527740e+02 8.16599727e-01 3.93748045e-01
      9.55367163e-02 8.38950729e+00</_>
    <_>
      1.50915697e-01 2.64130341e+02 6.61395431e-01 2.41652682e-01
      2.30551530e-02 1.09329376e+01</_>
    <_>
      3.59559387e-01 1.77897659e+02 8.39494050e-01 4.37694520e-01
      1.29421085e-01 7.64597750e+00</_>
    <_>
      3.20350438e-01 1.34904434e+02 8.66500378e-01 4.37156618e-01
      1.02809846e-01 6.49989510e+00</_>
    <_>
      2.48299137e-01 2.12395569e+02 7.67649710e-01 3.43949318e-01
      6.20983168e-02 8.96625042e+00</_>
    <_>
      3.27529609e-01 1.34491028e+02 8.68915200e-01 4.43521917e-01
      1.07438587e-01 6.36739683e+00</_>
    <_>
      3.49236250e-01 2.15212509e+02 7.92252004e-01 4.27554846e-01
      1.22250296e-01 8.34021473e+00</_>
    <_>
      3.43640715e-01 1.35796616e+02 8.72602403e-01 4.40951139e-01
      1.18162431e-01 6.69894218e+00</_>
    <_>
      3.95850837e-01 2.47203415e+02 7.67023683e-01 4.81352687e-01
      1.56822890e-01 8.06889248e+00</_>
    <_>
      2.08465785e-01 2.46079941e+02 7.07819343e-01 2.84611136e-01
      4.36522067e-02 1.05928230e+01</_>
    <_>
      2.91893691e-01 3.59771362e+02 5.66784620e-01 3.95642489e-01
      8.54256302e-02 1.10220852e+01</_>
    <_>
      2.18051136e-01 2.89775604e+02 6.54028833e-01 3.21030915e-01
      4.80381995e-02 1.05219498e+01</_>
    <_>
      1.96380451e-01 5.14958374e+02 3.50530863e-01 2.85713226e-01
      3.94938067e-02 1.50190659e+01</_>
    <_>
      2.28059590e-01 2.20777328e+02 7.54242301e-01 3.16607505e-01
      5.22516519e-02 9.53064060e+00</_>
    <_>
      1.08295523e-01 3.14251709e+02 5.66617787e-01 1.91681609e-01
      1.23816039e-02 1.25936737e+01</_>
    <_>
      3.83495986e-01 1.44521729e+02 8.71667147e-01 4.67694372e-01
      1.47151321e-01 6.81210613e+00</_>
    <_>
      3.16034108e-01 2.59951721e+02 7.38363206e-01 3.89092803e-01
      1.00074030e-01 9.47239208e+00</_>
    <_>
      3.50249171e-01 2.44542831e+02 7.75677800e-01 4.40902084e-01
      1.22850969e-01 8.72180557e+00</_>
    <_>
      3.90062332e-01 1.44552872e+02 8.67420852e-01 4.85739827e-01
      1.52206257e-01 6.30993843e+00</_>
    <_>
      3.10951054e-01 1.47673370e+02 8.50539386e-01 4.10193920e-01
      9.68615860e-02 7.12408686e+00</_>
    <_>
      3.26202244e-01 2.88510773e+02 7.32471466e-01 3.98219496e-01
      1.06682293e-01 1.03686810e+01</_>
    <_>
      3.08136761e-01 4.33789612e+02 5.53564906e-01 3.82449985e-01
      9.52337682e-02 1.29951811e+01</_>
    <_>
      2.60189354e-01 2.80410309e+02 7.14564681e-01 3.48178148e-01
      6.84034452e-02 1.01859045e+01</_>
    <_>
      2.77571976e-01 5.39359009e+02 2.51963526e-01 3.48142445e-01
      7.71264881e-02 1.47541294e+01</_></uncompressed_support_vectors>
  <decision_functions>
    <_>
      <sv_count>1</sv_count>
      <rho>3.0968634352349178e+00</rho>
      <alpha>
        1.</alpha>
      <index>
        0</index></_>
    <_>
      <sv_count>1</sv_count>
      <rho>-7.4793061166935360e+00</rho>
      <alpha>
        1.</alpha>
      <index>
        1</index></_>
    <_>
      <sv_count>1</sv_count>
      <rho>2.6974027585733844e+00</rho>
      <alpha>
        1.</alpha>
      <index>
        2</index></_>
    <_>
      <sv_count>1</sv_count>
      <rho>-1.0747121521516090e+00</rho>
      <alpha>
        1.</alpha>
      <index>
        3</index></_>
    <_>
      <sv_count>1</sv_count>
      <rho>2.4849811218235969e+00</rho>
      <alpha>
        1.</alpha>
      <index>
        4</index></_>
    <_>
      <sv_count>1</sv_count>
      <rho>2.4300609313840473e+00</rho>
      <alpha>
        1.</alpha>
      <index>
        5</index></_>
    <_>
      <sv_count>1</sv_count>
      <rho>-9.4770779315437359e+00</rho>
      <alpha>
        1.</alpha>
      <index>
        6</index></_>
    <_>
      <sv_count>1</sv_count>
      <rho>-3.5393353012460693e+00</rho>
      <alpha>
        1.</alpha>
      <index>
        7</index></_>
    <_>
      <sv_count>1</sv_count>
      <rho>-1.0741902812150570e+01</rho>
      <alpha>
        1.</alpha>
      <index>
        8</index></_>
    <_>
      <sv_count>1</sv_count>
      <rho>3.4384298335743155e+00</rho>
      <alpha>
        1.</alpha>
      <index>
        9</index></_>
    <_>
      <sv_count>1</sv_count>
      <rho>-2.1579799299329046e+01</rho>
      <alpha>
        1.</alpha>
      <index>
        10</index></_>
    <_>
      <sv_count>1</sv_count>
      <rho>3.6383260277186724e+00</rho>
      <alpha>
        1.</alpha>
      <index>
        11</index></_>
    <_>
      <sv_count>1</sv_count>
      <rho>3.5821905491125423e+00</rho>
      <alpha>
        1.</alpha>
      <index>
        12</index></_>
    <_>
      <sv_count>1</sv_count>
      <rho>-3.3315823529412640e+01</rho>
      <alpha>
        1.</alpha>
      <index>
        13</index></_>
    <_>
      <sv_count>1</sv_count>
      <rho>-2.9200754217908793e+00</rho>
      <alpha>
        1.</alpha>
      <index>
        14</index></_>
    <_>
      <sv_count>1</sv_count>
      <rho>5.1062023373593659e+00</rho>
      <alpha>
        1.</alpha>
      <index>
        15</index></_>
    <_>
      <sv_count>1</sv_count>
      <rho>-6.4920669907255837e+00</rho>
      <alpha>
        1.</alpha>
      <index>
        16</index></_>
    <_>
      <sv_count>1</sv_count>
      <rho>5.6593277455226767e+00</rho>
      <alpha>
        1.</alpha>
      <index>
        17</index></_>
    <_>
      <sv_count>1</sv_count>
      <rho>5.4649798220517782e+00</rho>
      <alpha>
        1.</alpha>
      <index>
        18</index></_>
    <_>
      <sv_count>1</sv_count>
      <rho>-7.2482661399243646e+00</rho>
      <alpha>
        1.</alpha>
      <index>
        19</index></_>
    <_>
      <sv_count>1</sv_count>
      <rho>-2.2997541672847266e+00</rho>
      <alpha>
        1.</alpha>
      <index>
        20</index></_>
    <_>
      <sv_count>1</sv_count>
      <rho>-1.2595875712889512e+01</rho>
      <alpha>
        1.</alpha>
      <index>
        21</index></_>
    <_>
      <sv_count>1</sv_count>
      <rho>4.1123872320720096e+00</rho>
      <alpha>
        1.</alpha>
      <index>
        22</index></_>
    <_>
      <sv_count>1</sv_count>
      <rho>3.6407511459679811e+00</rho>
      <alpha>
        1.</alpha>
      <index>
        23</index></_>
    <_>
      <sv_count>1</sv_count>
      <rho>-1.5858159906580768e+01</rho>
      <alpha>
        1.</alpha>
      <index>
        24</index></_>
    <_>
      <sv_count>1</sv_count>
      <rho>-2.6926324935689694e+00</rho>
      <alpha>
        1.</alpha>
      <index>
        25</index></_>
    <_>
      <sv_count>1</sv_count>
      <rho>6.7912016872240955e-01</rho>
      <alpha>
        1.</alpha>
      <index>
        26</index></_>
    <_>
      <sv_count>1</sv_count>
      <rho>1.1810409077825971e+01</rho>
      <alpha>
        1.</alpha>
      <index>
        27</index></_>
    <_>
      <sv_count>1</sv_count>
      <rho>-4.9593774973070532e+00</rho>
      <alpha>
        1.</alpha>
      <index>
        28</index></_>
    <_>
      <sv_count>1</sv_count>
      <rho>-4.3191980686468355e+01</rho>
      <alpha>
        1.</alpha>
      <index>
        29</index></_>
    <_>
      <sv_count>1</sv_count>
      <rho>2.5831777802107996e+00</rho>
      <alpha>
        1.</alpha>
      <index>
        30</index></_>
    <_>
      <sv_count>1</sv_count>
      <rho>-1.1860038654823464e+01</rho>
      <alpha>
        1.</alpha>
      <index>
        31</index></_>
    <_>
      <sv_count>1</sv_count>
      <rho>-3.7928201248135043e+00</rho>
      <alpha>
        1.</alpha>
      <index>
        32</index></_>
    <_>
      <sv_count>1</sv_count>
      <rho>-1.4632761322747854e+01</rho>
      <alpha>
        1.</alpha>
      <index>
        33</index></_>
    <_>
      <sv_count>1</sv_count>
      <rho>-2.6594510869191668e+00</rho>
      <alpha>
        1.</alpha>
      <index>
        34</index></_>
    <_>
      <sv_count>1</sv_count>
      <rho>-9.2198136730406119e+00</rho>
      <alpha>
        1.</alpha>
      <index>
        35</index></_></decision_functions></opencv_ml_svm>
</opencv_storage>
